digraph Tree {
0 [shape="box", label="X[4] <= 92.5000\ngini = 0.4838\nsamples = 400"];
1 [shape="box", label="X[5] <= 0.5000\ngini = 0.349635796046\nsamples = 62"];
0 -> 1;
2 [shape="box", label="X[1] <= 58.0000\ngini = 0.498614958449\nsamples = 19"];
1 -> 2;
3 [shape="box", label="gini = 0.0000\nsamples = 7\nvalue = [ 7.  0.]"];
2 -> 3;
4 [shape="box", label="X[2] <= 9.5000\ngini = 0.375\nsamples = 12"];
2 -> 4;
5 [shape="box", label="X[2] <= 6.5000\ngini = 0.5\nsamples = 6"];
4 -> 5;
6 [shape="box", label="X[3] <= 120.0000\ngini = 0.375\nsamples = 4"];
5 -> 6;
7 [shape="box", label="gini = 0.0000\nsamples = 1\nvalue = [ 1.  0.]"];
6 -> 7;
8 [shape="box", label="gini = 0.0000\nsamples = 3\nvalue = [ 0.  3.]"];
6 -> 8;
9 [shape="box", label="gini = 0.0000\nsamples = 2\nvalue = [ 2.  0.]"];
5 -> 9;
10 [shape="box", label="gini = 0.0000\nsamples = 6\nvalue = [ 0.  6.]"];
4 -> 10;
11 [shape="box", label="X[3] <= 198.5000\ngini = 0.168739859383\nsamples = 43"];
1 -> 11;
12 [shape="box", label="X[6] <= 64.0000\ngini = 0.359861591696\nsamples = 17"];
11 -> 12;
13 [shape="box", label="X[3] <= 189.5000\ngini = 0.14201183432\nsamples = 13"];
12 -> 13;
14 [shape="box", label="gini = 0.0000\nsamples = 12\nvalue = [  0.  12.]"];
13 -> 14;
15 [shape="box", label="gini = 0.0000\nsamples = 1\nvalue = [ 1.  0.]"];
13 -> 15;
16 [shape="box", label="X[1] <= 67.5000\ngini = 0.375\nsamples = 4"];
12 -> 16;
17 [shape="box", label="gini = 0.0000\nsamples = 1\nvalue = [ 0.  1.]"];
16 -> 17;
18 [shape="box", label="gini = 0.0000\nsamples = 3\nvalue = [ 3.  0.]"];
16 -> 18;
19 [shape="box", label="gini = 0.0000\nsamples = 26\nvalue = [  0.  26.]"];
11 -> 19;
20 [shape="box", label="X[2] <= 6.5000\ngini = 0.450824550961\nsamples = 338"];
0 -> 20;
21 [shape="box", label="X[0] <= 144.5000\ngini = 0.311956289491\nsamples = 181"];
20 -> 21;
22 [shape="box", label="X[6] <= 50.5000\ngini = 0.242274819198\nsamples = 156"];
21 -> 22;
23 [shape="box", label="X[4] <= 100.5000\ngini = 0.386992743886\nsamples = 61"];
22 -> 23;
24 [shape="box", label="X[2] <= 4.5000\ngini = 0.277777777778\nsamples = 6"];
23 -> 24;
25 [shape="box", label="gini = 0.0000\nsamples = 5\nvalue = [ 0.  5.]"];
24 -> 25;
26 [shape="box", label="gini = 0.0000\nsamples = 1\nvalue = [ 1.  0.]"];
24 -> 26;
27 [shape="box", label="X[6] <= 48.5000\ngini = 0.32\nsamples = 55"];
23 -> 27;
28 [shape="box", label="X[0] <= 131.5000\ngini = 0.281950872197\nsamples = 53"];
27 -> 28;
29 [shape="box", label="X[4] <= 153.0000\ngini = 0.110726643599\nsamples = 34"];
28 -> 29;
30 [shape="box", label="X[6] <= 25.5000\ngini = 0.0624349635796\nsamples = 31"];
29 -> 30;
31 [shape="box", label="X[4] <= 111.5000\ngini = 0.375\nsamples = 4"];
30 -> 31;
32 [shape="box", label="gini = 0.0000\nsamples = 1\nvalue = [ 0.  1.]"];
31 -> 32;
33 [shape="box", label="gini = 0.0000\nsamples = 3\nvalue = [ 3.  0.]"];
31 -> 33;
34 [shape="box", label="gini = 0.0000\nsamples = 27\nvalue = [ 27.   0.]"];
30 -> 34;
35 [shape="box", label="X[4] <= 156.0000\ngini = 0.444444444444\nsamples = 3"];
29 -> 35;
36 [shape="box", label="gini = 0.0000\nsamples = 1\nvalue = [ 0.  1.]"];
35 -> 36;
37 [shape="box", label="gini = 0.0000\nsamples = 2\nvalue = [ 2.  0.]"];
35 -> 37;
38 [shape="box", label="X[4] <= 130.0000\ngini = 0.465373961219\nsamples = 19"];
28 -> 38;
39 [shape="box", label="X[2] <= 1.5000\ngini = 0.42\nsamples = 10"];
38 -> 39;
40 [shape="box", label="X[6] <= 40.0000\ngini = 0.244897959184\nsamples = 7"];
39 -> 40;
41 [shape="box", label="gini = 0.0000\nsamples = 5\nvalue = [ 0.  5.]"];
40 -> 41;
42 [shape="box", label="X[0] <= 135.5000\ngini = 0.5\nsamples = 2"];
40 -> 42;
43 [shape="box", label="gini = 0.0000\nsamples = 1\nvalue = [ 1.  0.]"];
42 -> 43;
44 [shape="box", label="gini = 0.0000\nsamples = 1\nvalue = [ 0.  1.]"];
42 -> 44;
45 [shape="box", label="X[0] <= 134.5000\ngini = 0.444444444444\nsamples = 3"];
39 -> 45;
46 [shape="box", label="gini = 0.0000\nsamples = 1\nvalue = [ 0.  1.]"];
45 -> 46;
47 [shape="box", label="gini = 0.0000\nsamples = 2\nvalue = [ 2.  0.]"];
45 -> 47;
48 [shape="box", label="gini = 0.0000\nsamples = 9\nvalue = [ 9.  0.]"];
38 -> 48;
49 [shape="box", label="gini = 0.0000\nsamples = 2\nvalue = [ 0.  2.]"];
27 -> 49;
50 [shape="box", label="X[1] <= 102.5000\ngini = 0.118337950139\nsamples = 95"];
22 -> 50;
51 [shape="box", label="X[0] <= 121.5000\ngini = 0.0721875\nsamples = 80"];
50 -> 51;
52 [shape="box", label="gini = 0.0000\nsamples = 39\nvalue = [ 39.   0.]"];
51 -> 52;
53 [shape="box", label="X[4] <= 103.0000\ngini = 0.135633551457\nsamples = 41"];
51 -> 53;
54 [shape="box", label="X[4] <= 99.5000\ngini = 0.48\nsamples = 5"];
53 -> 54;
55 [shape="box", label="gini = 0.0000\nsamples = 3\nvalue = [ 3.  0.]"];
54 -> 55;
56 [shape="box", label="gini = 0.0000\nsamples = 2\nvalue = [ 0.  2.]"];
54 -> 56;
57 [shape="box", label="X[3] <= 116.5000\ngini = 0.054012345679\nsamples = 36"];
53 -> 57;
58 [shape="box", label="X[3] <= 106.5000\ngini = 0.197530864198\nsamples = 9"];
57 -> 58;
59 [shape="box", label="gini = 0.0000\nsamples = 8\nvalue = [ 8.  0.]"];
58 -> 59;
60 [shape="box", label="gini = 0.0000\nsamples = 1\nvalue = [ 0.  1.]"];
58 -> 60;
61 [shape="box", label="gini = 0.0000\nsamples = 27\nvalue = [ 27.   0.]"];
57 -> 61;
62 [shape="box", label="X[6] <= 63.5000\ngini = 0.32\nsamples = 15"];
50 -> 62;
63 [shape="box", label="X[7] <= 12.5000\ngini = 0.5\nsamples = 6"];
62 -> 63;
64 [shape="box", label="gini = 0.0000\nsamples = 2\nvalue = [ 0.  2.]"];
63 -> 64;
65 [shape="box", label="X[1] <= 112.0000\ngini = 0.375\nsamples = 4"];
63 -> 65;
66 [shape="box", label="gini = 0.0000\nsamples = 3\nvalue = [ 3.  0.]"];
65 -> 66;
67 [shape="box", label="gini = 0.0000\nsamples = 1\nvalue = [ 0.  1.]"];
65 -> 67;
68 [shape="box", label="gini = 0.0000\nsamples = 9\nvalue = [ 9.  0.]"];
62 -> 68;
69 [shape="box", label="X[4] <= 151.5000\ngini = 0.4992\nsamples = 25"];
21 -> 69;
70 [shape="box", label="X[5] <= 0.5000\ngini = 0.432132963989\nsamples = 19"];
69 -> 70;
71 [shape="box", label="gini = 0.0000\nsamples = 4\nvalue = [ 4.  0.]"];
70 -> 71;
72 [shape="box", label="X[6] <= 63.5000\ngini = 0.231111111111\nsamples = 15"];
70 -> 72;
73 [shape="box", label="gini = 0.0000\nsamples = 12\nvalue = [  0.  12.]"];
72 -> 73;
74 [shape="box", label="X[7] <= 15.5000\ngini = 0.444444444444\nsamples = 3"];
72 -> 74;
75 [shape="box", label="gini = 0.0000\nsamples = 2\nvalue = [ 2.  0.]"];
74 -> 75;
76 [shape="box", label="gini = 0.0000\nsamples = 1\nvalue = [ 0.  1.]"];
74 -> 76;
77 [shape="box", label="gini = 0.0000\nsamples = 6\nvalue = [ 6.  0.]"];
69 -> 77;
78 [shape="box", label="X[5] <= 0.5000\ngini = 0.499492880036\nsamples = 157"];
20 -> 78;
79 [shape="box", label="X[6] <= 46.0000\ngini = 0.21875\nsamples = 32"];
78 -> 79;
80 [shape="box", label="X[4] <= 125.0000\ngini = 0.391111111111\nsamples = 15"];
79 -> 80;
81 [shape="box", label="X[3] <= 332.5000\ngini = 0.489795918367\nsamples = 7"];
80 -> 81;
82 [shape="box", label="gini = 0.0000\nsamples = 3\nvalue = [ 0.  3.]"];
81 -> 82;
83 [shape="box", label="X[4] <= 122.0000\ngini = 0.375\nsamples = 4"];
81 -> 83;
84 [shape="box", label="gini = 0.0000\nsamples = 3\nvalue = [ 3.  0.]"];
83 -> 84;
85 [shape="box", label="gini = 0.0000\nsamples = 1\nvalue = [ 0.  1.]"];
83 -> 85;
86 [shape="box", label="gini = 0.0000\nsamples = 8\nvalue = [ 8.  0.]"];
80 -> 86;
87 [shape="box", label="gini = 0.0000\nsamples = 17\nvalue = [ 17.   0.]"];
79 -> 87;
88 [shape="box", label="X[5] <= 1.5000\ngini = 0.473088\nsamples = 125"];
78 -> 88;
89 [shape="box", label="X[4] <= 163.5000\ngini = 0.184089414859\nsamples = 39"];
88 -> 89;
90 [shape="box", label="X[1] <= 35.0000\ngini = 0.102264426589\nsamples = 37"];
89 -> 90;
91 [shape="box", label="X[1] <= 30.5000\ngini = 0.5\nsamples = 4"];
90 -> 91;
92 [shape="box", label="gini = 0.0000\nsamples = 2\nvalue = [ 0.  2.]"];
91 -> 92;
93 [shape="box", label="gini = 0.0000\nsamples = 2\nvalue = [ 2.  0.]"];
91 -> 93;
94 [shape="box", label="gini = 0.0000\nsamples = 33\nvalue = [  0.  33.]"];
90 -> 94;
95 [shape="box", label="gini = 0.0000\nsamples = 2\nvalue = [ 2.  0.]"];
89 -> 95;
96 [shape="box", label="X[4] <= 124.5000\ngini = 0.499729583559\nsamples = 86"];
88 -> 96;
97 [shape="box", label="X[0] <= 121.5000\ngini = 0.444444444444\nsamples = 51"];
96 -> 97;
98 [shape="box", label="X[1] <= 102.5000\ngini = 0.42\nsamples = 20"];
97 -> 98;
99 [shape="box", label="X[4] <= 102.5000\ngini = 0.231111111111\nsamples = 15"];
98 -> 99;
100 [shape="box", label="X[1] <= 94.0000\ngini = 0.444444444444\nsamples = 3"];
99 -> 100;
101 [shape="box", label="gini = 0.0000\nsamples = 2\nvalue = [ 0.  2.]"];
100 -> 101;
102 [shape="box", label="gini = 0.0000\nsamples = 1\nvalue = [ 1.  0.]"];
100 -> 102;
103 [shape="box", label="gini = 0.0000\nsamples = 12\nvalue = [ 12.   0.]"];
99 -> 103;
104 [shape="box", label="X[7] <= 16.5000\ngini = 0.32\nsamples = 5"];
98 -> 104;
105 [shape="box", label="gini = 0.0000\nsamples = 4\nvalue = [ 0.  4.]"];
104 -> 105;
106 [shape="box", label="gini = 0.0000\nsamples = 1\nvalue = [ 1.  0.]"];
104 -> 106;
107 [shape="box", label="X[6] <= 49.5000\ngini = 0.174817898023\nsamples = 31"];
97 -> 107;
108 [shape="box", label="gini = 0.0000\nsamples = 17\nvalue = [  0.  17.]"];
107 -> 108;
109 [shape="box", label="X[6] <= 52.0000\ngini = 0.336734693878\nsamples = 14"];
107 -> 109;
110 [shape="box", label="gini = 0.0000\nsamples = 1\nvalue = [ 1.  0.]"];
109 -> 110;
111 [shape="box", label="X[7] <= 10.5000\ngini = 0.260355029586\nsamples = 13"];
109 -> 111;
112 [shape="box", label="X[2] <= 12.5000\ngini = 0.48\nsamples = 5"];
111 -> 112;
113 [shape="box", label="gini = 0.0000\nsamples = 2\nvalue = [ 0.  2.]"];
112 -> 113;
114 [shape="box", label="X[4] <= 109.0000\ngini = 0.444444444444\nsamples = 3"];
112 -> 114;
115 [shape="box", label="gini = 0.0000\nsamples = 1\nvalue = [ 0.  1.]"];
114 -> 115;
116 [shape="box", label="gini = 0.0000\nsamples = 2\nvalue = [ 2.  0.]"];
114 -> 116;
117 [shape="box", label="gini = 0.0000\nsamples = 8\nvalue = [ 0.  8.]"];
111 -> 117;
118 [shape="box", label="X[2] <= 22.0000\ngini = 0.352653061224\nsamples = 35"];
96 -> 118;
119 [shape="box", label="X[7] <= 10.5000\ngini = 0.263671875\nsamples = 32"];
118 -> 119;
120 [shape="box", label="X[4] <= 136.0000\ngini = 0.5\nsamples = 6"];
119 -> 120;
121 [shape="box", label="X[1] <= 27.0000\ngini = 0.375\nsamples = 4"];
120 -> 121;
122 [shape="box", label="gini = 0.0000\nsamples = 1\nvalue = [ 1.  0.]"];
121 -> 122;
123 [shape="box", label="gini = 0.0000\nsamples = 3\nvalue = [ 0.  3.]"];
121 -> 123;
124 [shape="box", label="gini = 0.0000\nsamples = 2\nvalue = [ 2.  0.]"];
120 -> 124;
125 [shape="box", label="X[9] <= 0.5000\ngini = 0.14201183432\nsamples = 26"];
119 -> 125;
126 [shape="box", label="gini = 0.0000\nsamples = 1\nvalue = [ 0.  1.]"];
125 -> 126;
127 [shape="box", label="X[2] <= 15.5000\ngini = 0.0768\nsamples = 25"];
125 -> 127;
128 [shape="box", label="gini = 0.0000\nsamples = 20\nvalue = [ 20.   0.]"];
127 -> 128;
129 [shape="box", label="X[7] <= 17.5000\ngini = 0.32\nsamples = 5"];
127 -> 129;
130 [shape="box", label="gini = 0.0000\nsamples = 4\nvalue = [ 4.  0.]"];
129 -> 130;
131 [shape="box", label="gini = 0.0000\nsamples = 1\nvalue = [ 0.  1.]"];
129 -> 131;
132 [shape="box", label="gini = 0.0000\nsamples = 3\nvalue = [ 0.  3.]"];
118 -> 132;
}
